digraph Tree {
node [shape=box, style="filled, rounded", color="black", fontname=helvetica] ;
edge [fontname=helvetica] ;
0 [label="petal length (cm) <= 2.45\ngini = 0.66\nsamples = 97\nvalue = [40, 53, 57]\nclass = virginica", fillcolor="#faf7fe"] ;
1 [label="gini = 0.0\nsamples = 25\nvalue = [40, 0, 0]\nclass = setosa", fillcolor="#e58139"] ;
0 -> 1 [labeldistance=2.5, labelangle=45, headlabel="True"] ;
2 [label="petal width (cm) <= 1.75\ngini = 0.5\nsamples = 72\nvalue = [0, 53, 57]\nclass = virginica", fillcolor="#f6f1fd"] ;
0 -> 2 [labeldistance=2.5, labelangle=-45, headlabel="False"] ;
3 [label="sepal width (cm) <= 2.25\ngini = 0.16\nsamples = 37\nvalue = [0, 53, 5]\nclass = versicolor", fillcolor="#4ce78d"] ;
2 -> 3 ;
4 [label="petal width (cm) <= 1.25\ngini = 0.44\nsamples = 2\nvalue = [0, 1, 2]\nclass = virginica", fillcolor="#c09cf2"] ;
3 -> 4 ;
5 [label="gini = 0.0\nsamples = 1\nvalue = [0, 1, 0]\nclass = versicolor", fillcolor="#39e581"] ;
4 -> 5 ;
6 [label="gini = 0.0\nsamples = 1\nvalue = [0, 0, 2]\nclass = virginica", fillcolor="#8139e5"] ;
4 -> 6 ;
7 [label="petal length (cm) <= 5.05\ngini = 0.1\nsamples = 35\nvalue = [0, 52, 3]\nclass = versicolor", fillcolor="#44e688"] ;
3 -> 7 ;
8 [label="sepal length (cm) <= 5.0\ngini = 0.04\nsamples = 32\nvalue = [0, 51, 1]\nclass = versicolor", fillcolor="#3de683"] ;
7 -> 8 ;
9 [label="gini = 0.0\nsamples = 1\nvalue = [0, 0, 1]\nclass = virginica", fillcolor="#8139e5"] ;
8 -> 9 ;
10 [label="gini = 0.0\nsamples = 31\nvalue = [0, 51, 0]\nclass = versicolor", fillcolor="#39e581"] ;
8 -> 10 ;
11 [label="petal width (cm) <= 1.55\ngini = 0.44\nsamples = 3\nvalue = [0, 1, 2]\nclass = virginica", fillcolor="#c09cf2"] ;
7 -> 11 ;
12 [label="gini = 0.0\nsamples = 2\nvalue = [0, 0, 2]\nclass = virginica", fillcolor="#8139e5"] ;
11 -> 12 ;
13 [label="gini = 0.0\nsamples = 1\nvalue = [0, 1, 0]\nclass = versicolor", fillcolor="#39e581"] ;
11 -> 13 ;
14 [label="gini = 0.0\nsamples = 35\nvalue = [0, 0, 52]\nclass = virginica", fillcolor="#8139e5"] ;
2 -> 14 ;
}